digraph Tree {
node [shape=box] ;
0 [label="X[3] <= 0.605\ngini = 0.44\nsamples = 1413\nvalue = [461, 952]"] ;
1 [label="X[11] <= -0.686\ngini = 0.154\nsamples = 641\nvalue = [54, 587]"] ;
0 -> 1 [labeldistance=2.5, labelangle=45, headlabel="True"] ;
2 [label="X[3] <= 0.057\ngini = 0.416\nsamples = 88\nvalue = [26, 62]"] ;
1 -> 2 ;
3 [label="gini = 0.285\nsamples = 64\nvalue = [11, 53]"] ;
2 -> 3 ;
4 [label="gini = 0.469\nsamples = 24\nvalue = [15, 9]"] ;
2 -> 4 ;
5 [label="X[0] <= 0.21\ngini = 0.096\nsamples = 553\nvalue = [28, 525]"] ;
1 -> 5 ;
6 [label="gini = 0.049\nsamples = 438\nvalue = [11, 427]"] ;
5 -> 6 ;
7 [label="gini = 0.252\nsamples = 115\nvalue = [17, 98]"] ;
5 -> 7 ;
8 [label="X[11] <= -0.068\ngini = 0.499\nsamples = 772\nvalue = [407, 365]"] ;
0 -> 8 [labeldistance=2.5, labelangle=-45, headlabel="False"] ;
9 [label="X[0] <= 0.796\ngini = 0.44\nsamples = 466\nvalue = [314, 152]"] ;
8 -> 9 ;
10 [label="gini = 0.488\nsamples = 317\nvalue = [183, 134]"] ;
9 -> 10 ;
11 [label="gini = 0.212\nsamples = 149\nvalue = [131, 18]"] ;
9 -> 11 ;
12 [label="X[7] <= -1.197\ngini = 0.423\nsamples = 306\nvalue = [93, 213]"] ;
8 -> 12 ;
13 [label="gini = 0.43\nsamples = 32\nvalue = [22, 10]"] ;
12 -> 13 ;
14 [label="gini = 0.384\nsamples = 274\nvalue = [71, 203]"] ;
12 -> 14 ;
}